<?xml version="1.0"?>
<opencv_storage>
<stage7>
  <maxWeakCount>19</maxWeakCount>
  <stageThreshold>2.4934454262256622e-01</stageThreshold>
  <weakClassifiers>
    <_>
      <internalNodes>
        0 -1 42914 -533401940 50130926 -16843026 -1564934406 402917358
        115867680 940990206 1085079292</internalNodes>
      <leafValues>
        -7.2368419170379639e-01 9.0071970224380493e-01</leafValues></_>
    <_>
      <internalNodes>
        0 -1 52318 1080510071 1162761087 1467678779 1338627071
        1433687511 -2022716137 1465540053 7058463</internalNodes>
      <leafValues>
        -3.3353558182716370e-01 7.1320688724517822e-01</leafValues></_>
    <_>
      <internalNodes>
        0 -1 28591 -11011057 268270973 1561394935 1438485756 2063597431
        -1802863108 -58862089 1607404773</internalNodes>
      <leafValues>
        -3.7137460708618164e-01 6.1402064561843872e-01</leafValues></_>
    <_>
      <internalNodes>
        0 -1 48835 -497892353 -2095873967 71729343 1489141786 -469754100
        1124096536 1428001978 1896609146</internalNodes>
      <leafValues>
        -5.7467716932296753e-01 4.3865302205085754e-01</leafValues></_>
    <_>
      <internalNodes>
        0 -1 50688 -1013501650 1294434984 -1879043069 -854351725
        -1794539245 -240975856 -2145285925 -435115695</internalNodes>
      <leafValues>
        -6.1371213197708130e-01 3.8069161772727966e-01</leafValues></_>
    <_>
      <internalNodes>
        0 -1 41109 2004807646 -690952966 -1090582513 1884891231
        -134218708 -117440552 -1594095484 -1143214348</internalNodes>
      <leafValues>
        -4.3770113587379456e-01 5.7599800825119019e-01</leafValues></_>
    <_>
      <internalNodes>
        0 -1 58115 -268142437 -114329848 1089339488 1386440218
        -1794776988 1346491904 -2045325146 -428706609</internalNodes>
      <leafValues>
        -4.9759340286254883e-01 5.2496588230133057e-01</leafValues></_>
    <_>
      <internalNodes>
        0 -1 40476 353840123 219248809 -1447514198 422832825 -1780224274
        -431767621 502251455 -17085155</internalNodes>
      <leafValues>
        -4.4160565733909607e-01 6.2408179044723511e-01</leafValues></_>
    <_>
      <internalNodes>
        0 -1 45089 -1732605732 -1409611094 -839844760 1760254204
        -1332150530 1220869245 -1000341774 -285221394</internalNodes>
      <leafValues>
        -4.0876892209053040e-01 5.7785105705261230e-01</leafValues></_>
    <_>
      <internalNodes>
        0 -1 48820 -1211394795 -473235713 -17104933 -1342243077
        -17957521 -286261299 -117637282 -362811660</internalNodes>
      <leafValues>
        -4.0416753292083740e-01 5.7532119750976562e-01</leafValues></_>
    <_>
      <internalNodes>
        0 -1 50706 -1092208 1097083628 -839976210 -554991618 -1923649736
        38958870 -589734401 -731524654</internalNodes>
      <leafValues>
        -4.2974868416786194e-01 5.7571083307266235e-01</leafValues></_>
    <_>
      <internalNodes>
        0 -1 38639 -983744344 -1995517676 -2146041341 -249641659
        -1744797688 143262096 -91584511 923705359</internalNodes>
      <leafValues>
        -5.3450477123260498e-01 4.2054098844528198e-01</leafValues></_>
    <_>
      <internalNodes>
        0 -1 41877 -516849015 -1072367647 1758241785 1371653752
        104046225 -1255100802 -197460333 -2095367653</internalNodes>
      <leafValues>
        -4.4723641872406006e-01 5.0870257616043091e-01</leafValues></_>
    <_>
      <internalNodes>
        0 -1 50730 1090553018 12845072 8454352 -1878822903 -1340996733
        134348931 -1602002070 -1364279042</internalNodes>
      <leafValues>
        -7.3816603422164917e-01 3.1475427746772766e-01</leafValues></_>
    <_>
      <internalNodes>
        0 -1 50287 -470535395 1397215232 17051867 822129716 -251453246
        -2004844384 -1610309496 -871833394</internalNodes>
      <leafValues>
        -5.1846915483474731e-01 4.4052469730377197e-01</leafValues></_>
    <_>
      <internalNodes>
        0 -1 40723 538205062 71387417 1065284 325009739 -1845185123
        1046479873 865138127 -1744053601</internalNodes>
      <leafValues>
        -5.2709746360778809e-01 4.3814581632614136e-01</leafValues></_>
    <_>
      <internalNodes>
        0 -1 45043 -1317044233 -1120470286 2147090175 -838927760
        368508407 -186318858 351853802 -117612874</internalNodes>
      <leafValues>
        -4.3591135740280151e-01 4.9841228127479553e-01</leafValues></_>
    <_>
      <internalNodes>
        0 -1 56815 -1847369717 -619953510 65667 1356220580 -1857904576
        1125658634 -1606380384 -1437979477</internalNodes>
      <leafValues>
        -5.0582981109619141e-01 4.7070276737213135e-01</leafValues></_>
    <_>
      <internalNodes>
        0 -1 30583 -200965697 -1422709313 -1347506303 -928924259
        -2031203335 -1929716805 -319742279 -135561826</internalNodes>
      <leafValues>
        -3.0377939343452454e-01 7.9860788583755493e-01</leafValues></_></weakClassifiers></stage7>
</opencv_storage>
