<?xml version="1.0"?>
<opencv_storage>
<stage1>
  <maxWeakCount>13</maxWeakCount>
  <stageThreshold>4.9396044015884399e-01</stageThreshold>
  <weakClassifiers>
    <_>
      <internalNodes>
        0 -1 40632 -117642070 276211962 -122094934 909310650 1593757354
        922677226 1610244010 362504190</internalNodes>
      <leafValues>
        -6.6265058517456055e-01 9.3008202314376831e-01</leafValues></_>
    <_>
      <internalNodes>
        0 -1 31456 1442807679 1347698557 -17236481 342945789 1157068663
        1154285436 70438133 1240301</internalNodes>
      <leafValues>
        -7.1469908952713013e-01 7.6827967166900635e-01</leafValues></_>
    <_>
      <internalNodes>
        0 -1 34902 -780107128 -587120384 -520090363 -180008559
        -1935365873 402679947 1233357691 1066598923</internalNodes>
      <leafValues>
        -6.4000624418258667e-01 6.2484550476074219e-01</leafValues></_>
    <_>
      <internalNodes>
        0 -1 4438 -222291971 -27783423 948047658 2119175462 1080120271
        -631351540 1343274399 -109611161</internalNodes>
      <leafValues>
        -4.9850425124168396e-01 6.8829888105392456e-01</leafValues></_>
    <_>
      <internalNodes>
        0 -1 34030 -171609187 1439529027 286859535 1467163296 1258935346
        1166129216 -1853298544 67235978</internalNodes>
      <leafValues>
        -7.3690474033355713e-01 5.0940054655075073e-01</leafValues></_>
    <_>
      <internalNodes>
        0 -1 50681 1409860227 -1056373949 -985525429 -245952483
        1342550021 -1072521213 -494691448 -1819313506</internalNodes>
      <leafValues>
        -5.6514275074005127e-01 6.3666015863418579e-01</leafValues></_>
    <_>
      <internalNodes>
        0 -1 40634 -711724302 1901162521 4247700 891093516 -2129342278
        48365652 -1278693965 1572453582</internalNodes>
      <leafValues>
        -6.9134128093719482e-01 5.1174217462539673e-01</leafValues></_>
    <_>
      <internalNodes>
        0 -1 28506 -1861156865 -737444547 51645167 154471742 1381293047
        -1972306625 -1267032129 -1137328963</internalNodes>
      <leafValues>
        -5.2670317888259888e-01 6.6231918334960938e-01</leafValues></_>
    <_>
      <internalNodes>
        0 -1 48773 1611788877 1195461889 1427196168 -83881968 11137106
        -1163222334 948625546 -91049310</internalNodes>
      <leafValues>
        -6.1083406209945679e-01 5.6887102127075195e-01</leafValues></_>
    <_>
      <internalNodes>
        0 -1 49963 1198542917 1325410843 -2054962172 138678290
        -1002404945 -2147381109 1396871377 -1423208565</internalNodes>
      <leafValues>
        -5.8461314439773560e-01 5.8968132734298706e-01</leafValues></_>
    <_>
      <internalNodes>
        0 -1 34046 -753574689 1364297732 -1072689190 957383250
        1078006431 1342702414 -1807349622 -1466152056</internalNodes>
      <leafValues>
        -6.3079106807708740e-01 5.3318113088607788e-01</leafValues></_>
    <_>
      <internalNodes>
        0 -1 334 280150662 -250207854 -1728048353 458575173 1342292391
        -2105501333 -718690931 1426556062</internalNodes>
      <leafValues>
        -6.9349324703216553e-01 4.9915066361427307e-01</leafValues></_>
    <_>
      <internalNodes>
        0 -1 28770 -749518585 -648477900 -2145317630 1161890506
        1759289399 -1070989032 -2012081777 1515964557</internalNodes>
      <leafValues>
        -6.0806703567504883e-01 5.2606189250946045e-01</leafValues></_></weakClassifiers></stage1>
</opencv_storage>
