<?xml version="1.0"?>
<opencv_storage>
<stage9>
  <maxWeakCount>20</maxWeakCount>
  <stageThreshold>6.4213532209396362e-01</stageThreshold>
  <weakClassifiers>
    <_>
      <internalNodes>
        0 -1 45103 -1599954880 -521997598 -18022674 -521601302
        -794820492 1148649884 -17006978 -59343244</internalNodes>
      <leafValues>
        -7.0700639486312866e-01 9.0130257606506348e-01</leafValues></_>
    <_>
      <internalNodes>
        0 -1 26188 -252182257 494526087 1118838671 723626154 -688693537
        1715400415 381308859 -962147164</internalNodes>
      <leafValues>
        -2.3153248429298401e-01 7.3637872934341431e-01</leafValues></_>
    <_>
      <internalNodes>
        0 -1 48835 18109375 -1945960260 1073787615 -132545536 2019377666
        1569145506 -1876840142 1634972016</internalNodes>
      <leafValues>
        -5.2825939655303955e-01 4.6740445494651794e-01</leafValues></_>
    <_>
      <internalNodes>
        0 -1 40753 1743777103 1171244621 167763438 -787551204 206454476
        -1939878315 -1914810404 -1654665251</internalNodes>
      <leafValues>
        -4.4744268059730530e-01 4.8747414350509644e-01</leafValues></_>
    <_>
      <internalNodes>
        0 -1 46834 -885741523 1616068929 -2096492224 -1017494974
        1519677977 709885985 989856329 -1417018841</internalNodes>
      <leafValues>
        -5.5923324823379517e-01 4.0019217133522034e-01</leafValues></_>
    <_>
      <internalNodes>
        0 -1 38719 1103712711 -1647030190 1360020688 -80162554
        -2138005300 1376157700 -939286503 674226822</internalNodes>
      <leafValues>
        -5.6816774606704712e-01 4.0992414951324463e-01</leafValues></_>
    <_>
      <internalNodes>
        0 -1 46482 375833158 1548579747 73540742 684285985 -1339842413
        -1744601006 -1811838289 -1154896965</internalNodes>
      <leafValues>
        -5.6348192691802979e-01 3.8254463672637939e-01</leafValues></_>
    <_>
      <internalNodes>
        0 -1 50640 -1481247361 1849720785 -143329437 -7995569 -143329305
        -134742017 -185215777 -1495793825</internalNodes>
      <leafValues>
        -3.1405925750732422e-01 6.6482955217361450e-01</leafValues></_>
    <_>
      <internalNodes>
        0 -1 33491 -888930835 -600703682 204514723 -21827923 -969372677
        -1900085763 -677124098 -1078493975</internalNodes>
      <leafValues>
        -3.6169114708900452e-01 6.2517875432968140e-01</leafValues></_>
    <_>
      <internalNodes>
        0 -1 52332 -903732741 1535312261 67206018 -267908975 269039738
        -268369376 403194466 -1108671597</internalNodes>
      <leafValues>
        -4.4801437854766846e-01 4.5774790644645691e-01</leafValues></_>
    <_>
      <internalNodes>
        0 -1 50576 865088912 -715975552 219255379 937202306 1342177332
        -1992294270 1610660832 -546829082</internalNodes>
      <leafValues>
        -4.9212363362312317e-01 4.3238031864166260e-01</leafValues></_>
    <_>
      <internalNodes>
        0 -1 14705 -905931786 1560756511 1409287174 806198665 135827805
        1076133928 -692153208 -466200307</internalNodes>
      <leafValues>
        -6.0592156648635864e-01 3.7311804294586182e-01</leafValues></_>
    <_>
      <internalNodes>
        0 -1 32600 -904535381 274316059 1904079615 -1802134723
        -850753349 -636630101 -587252583 1801480819</internalNodes>
      <leafValues>
        -4.0920719504356384e-01 5.4047363996505737e-01</leafValues></_>
    <_>
      <internalNodes>
        0 -1 42766 -1219237931 -1739931556 22173014 415793408 -682483308
        -930578431 1764328025 1792993441</internalNodes>
      <leafValues>
        -4.9093675613403320e-01 4.5427507162094116e-01</leafValues></_>
    <_>
      <internalNodes>
        0 -1 46992 -1996388064 -984606458 1611682054 -715993020 33563532
        134778912 -2096823933 -2444512</internalNodes>
      <leafValues>
        -5.0814175605773926e-01 4.4120368361473083e-01</leafValues></_>
    <_>
      <internalNodes>
        0 -1 31534 -661877978 1428488523 -1876031227 -1247936498
        -1837006774 2013987200 -1910865729 716947954</internalNodes>
      <leafValues>
        -4.9196493625640869e-01 4.6505552530288696e-01</leafValues></_>
    <_>
      <internalNodes>
        0 -1 48610 1959943031 -1226965027 2013020876 -1208517035
        -62119012 -188350627 -386094178 -403277833</internalNodes>
      <leafValues>
        -3.5861170291900635e-01 6.0394889116287231e-01</leafValues></_>
    <_>
      <internalNodes>
        0 -1 42740 -600607402 1079332721 268362957 -1566310403
        2058080377 -1235325066 -264912478 -1304004825</internalNodes>
      <leafValues>
        -4.4377934932708740e-01 4.9696573615074158e-01</leafValues></_>
    <_>
      <internalNodes>
        0 -1 36007 -208501730 -657567276 289179034 323560209 -1023254460
        -1602222776 935796097 -552433147</internalNodes>
      <leafValues>
        -5.4297053813934326e-01 4.2124000191688538e-01</leafValues></_>
    <_>
      <internalNodes>
        0 -1 50737 -2126933661 -1475313407 805646385 -1425993691
        -1441889987 179835170 35750507 -204543927</internalNodes>
      <leafValues>
        -4.2696723341941833e-01 5.2004045248031616e-01</leafValues></_></weakClassifiers></stage9>
</opencv_storage>
