<?xml version="1.0"?>
<opencv_storage>
<stage2>
  <maxWeakCount>13</maxWeakCount>
  <stageThreshold>7.3932868242263794e-01</stageThreshold>
  <weakClassifiers>
    <_>
      <internalNodes>
        0 -1 50730 251333120 -1360070048 257775964 -1568743944
        1006182160 -1359948299 238111822 -1442165746</internalNodes>
      <leafValues>
        -6.7153286933898926e-01 9.2043751478195190e-01</leafValues></_>
    <_>
      <internalNodes>
        0 -1 36167 1039760106 960101290 -1195892048 1496361642
        1174142922 807993018 1190629311 -269826837</internalNodes>
      <leafValues>
        -4.8251581192016602e-01 7.8788644075393677e-01</leafValues></_>
    <_>
      <internalNodes>
        0 -1 31272 -371765734 -774430592 28675 1363513345 1116971014
        1225695236 -1199340416 1148928201</internalNodes>
      <leafValues>
        -5.7681816816329956e-01 6.3748377561569214e-01</leafValues></_>
    <_>
      <internalNodes>
        0 -1 39797 -788404056 1342676999 272646361 1359020047 1128343943
        1493270531 -804880061 294346883</internalNodes>
      <leafValues>
        -6.8976897001266479e-01 4.9861192703247070e-01</leafValues></_>
    <_>
      <internalNodes>
        0 -1 33827 -1041629185 1232993919 547405502 -1817072221
        -448069634 -1105269522 1576177139 -340005649</internalNodes>
      <leafValues>
        -4.4453218579292297e-01 7.0788323879241943e-01</leafValues></_>
    <_>
      <internalNodes>
        0 -1 50681 1377176677 -691077117 269697173 -18935605 -266173824
        -1425407872 -1023155992 -542381782</internalNodes>
      <leafValues>
        -5.6668967008590698e-01 5.7804507017135620e-01</leafValues></_>
    <_>
      <internalNodes>
        0 -1 55349 -1273556989 -1325318142 323257171 -2029868919
        -2144862198 33619977 -1023094750 -751385978</internalNodes>
      <leafValues>
        -6.2159389257431030e-01 5.1646912097930908e-01</leafValues></_>
    <_>
      <internalNodes>
        0 -1 47048 705010291 1363640593 138514776 1103216656 -1568435260
        570427552 -1811832560 -128353993</internalNodes>
      <leafValues>
        -6.2170171737670898e-01 5.1471787691116333e-01</leafValues></_>
    <_>
      <internalNodes>
        0 -1 48812 669589506 -247422800 -1879031791 -183353328 335544320
        817889408 101056 -205420651</internalNodes>
      <leafValues>
        -5.5823218822479248e-01 5.5613481998443604e-01</leafValues></_>
    <_>
      <internalNodes>
        0 -1 47090 -515850080 -347324096 823132228 -1072593848
        -800948224 -1560281088 -1050078592 -623245160</internalNodes>
      <leafValues>
        -6.8495255708694458e-01 5.0253087282180786e-01</leafValues></_>
    <_>
      <internalNodes>
        0 -1 44712 2031080030 353341528 1610907650 -1794015099 38044202
        -134217728 -1056599406 467081031</internalNodes>
      <leafValues>
        -6.8335360288619995e-01 4.9247550964355469e-01</leafValues></_>
    <_>
      <internalNodes>
        0 -1 33757 2012736511 1970372273 -1875763152 1907979195
        -17082625 1987623482 -931579009 -952918865</internalNodes>
      <leafValues>
        -4.7897014021873474e-01 7.1142041683197021e-01</leafValues></_>
    <_>
      <internalNodes>
        0 -1 47041 -1970024270 -485949182 1090584576 -733625840
        -1367236080 -503054208 -1928295903 -258889216</internalNodes>
      <leafValues>
        -6.1159414052963257e-01 5.1860666275024414e-01</leafValues></_></weakClassifiers></stage2>
</opencv_storage>
