<?xml version="1.0"?>
<opencv_storage>
<stage0>
  <maxWeakCount>10</maxWeakCount>
  <stageThreshold>4.2157262563705444e-01</stageThreshold>
  <weakClassifiers>
    <_>
      <internalNodes>
        0 -1 50578 -1433891824 -1364279640 -269565953 -1360089348
        -285691916 -21037804 -268681348 -1359340512</internalNodes>
      <leafValues>
        -8.4210526943206787e-01 9.3843162059783936e-01</leafValues></_>
    <_>
      <internalNodes>
        0 -1 40890 -1413497106 673382194 -285540626 -534216790
        -856494338 -994640198 -856027682 -60633856</internalNodes>
      <leafValues>
        -7.2342956066131592e-01 8.4317988157272339e-01</leafValues></_>
    <_>
      <internalNodes>
        0 -1 40943 76280287 1078057031 18739710 1108628622 -108282352
        1216970979 -398278066 -1062275314</internalNodes>
      <leafValues>
        -6.8684464693069458e-01 7.2315698862075806e-01</leafValues></_>
    <_>
      <internalNodes>
        0 -1 31552 -83896833 1065303935 544354866 -1339017679
        -1898979329 1417609215 -163688546 -870253389</internalNodes>
      <leafValues>
        -6.6392803192138672e-01 7.8387093544006348e-01</leafValues></_>
    <_>
      <internalNodes>
        0 -1 33666 -2145714177 1613561126 -2135905089 1008848299
        1181417462 1309601262 -784818945 -272896849</internalNodes>
      <leafValues>
        -6.2106788158416748e-01 7.2632074356079102e-01</leafValues></_>
    <_>
      <internalNodes>
        0 -1 48834 -590882049 773521492 -267683122 -99020344 369099345
        -670866932 448922118 -427370030</internalNodes>
      <leafValues>
        -6.4459556341171265e-01 7.1044856309890747e-01</leafValues></_>
    <_>
      <internalNodes>
        0 -1 50681 -53076627 -1912537083 -1879029305 -1732033785
        -1065328511 -1163030503 -123055972 -854693620</internalNodes>
      <leafValues>
        -6.9623458385467529e-01 6.5661484003067017e-01</leafValues></_>
    <_>
      <internalNodes>
        0 -1 52189 -448048835 315332112 -1996239571 809507228 1477073412
        584614410 -2012081836 -742724848</internalNodes>
      <leafValues>
        -6.7156314849853516e-01 6.7634040117263794e-01</leafValues></_>
    <_>
      <internalNodes>
        0 -1 46890 -1429997879 -1061655544 1585743718 -1061124092
        -963639152 -656490094 -912213822 -353199849</internalNodes>
      <leafValues>
        -7.5048989057540894e-01 6.2501984834671021e-01</leafValues></_>
    <_>
      <internalNodes>
        0 -1 26092 -596697761 1409602832 -291291404 1715482548
        -2076834475 -1664237697 13893631 -333119809</internalNodes>
      <leafValues>
        -6.6001009941101074e-01 7.2844958305358887e-01</leafValues></_></weakClassifiers></stage0>
</opencv_storage>
