<?xml version="1.0"?>
<opencv_storage>
<stage15>
  <maxWeakCount>22</maxWeakCount>
  <stageThreshold>4.2908534407615662e-01</stageThreshold>
  <weakClassifiers>
    <_>
      <internalNodes>
        0 -1 43023 664962144 581107434 -17924354 1148084174 -1853783888
        283574220 -138388356 1157553984</internalNodes>
      <leafValues>
        -8.0327868461608887e-01 8.9660263061523438e-01</leafValues></_>
    <_>
      <internalNodes>
        0 -1 48813 1480612929 501547007 362098487 1165229943 304238303
        1959264254 1343291390 471095167</internalNodes>
      <leafValues>
        -3.0279812216758728e-01 6.7589008808135986e-01</leafValues></_>
    <_>
      <internalNodes>
        0 -1 50171 592338047 374099951 -2065191867 673025789 -2106282265
        -2075361923 -1066946826 991469183</internalNodes>
      <leafValues>
        -3.8265380263328552e-01 5.1815128326416016e-01</leafValues></_>
    <_>
      <internalNodes>
        0 -1 45269 -2142355106 -1202707244 -779068068 1909903906
        1887437198 -1315962744 -1572785973 274694357</internalNodes>
      <leafValues>
        -5.7325428724288940e-01 3.5327282547950745e-01</leafValues></_>
    <_>
      <internalNodes>
        0 -1 22922 -74038915 105908848 222039152 2097421106 -575130454
        78688050 1224615875 -106999873</internalNodes>
      <leafValues>
        -3.8471391797065735e-01 5.1777255535125732e-01</leafValues></_>
    <_>
      <internalNodes>
        0 -1 31676 -1463778068 -778923878 -1064271800 -917120742
        -735533861 1115767300 -2104473456 1074004934</internalNodes>
      <leafValues>
        -5.5995655059814453e-01 3.4062254428863525e-01</leafValues></_>
    <_>
      <internalNodes>
        0 -1 50779 341561429 -1273753388 79791766 690323613 -1341947229
        4259841 -2137941867 -3421913</internalNodes>
      <leafValues>
        -4.3035042285919189e-01 4.7726073861122131e-01</leafValues></_>
    <_>
      <internalNodes>
        0 -1 52229 1903290663 1014866159 2113762047 1769783039 -41135646
        2004745077 -774056998 -1007749794</internalNodes>
      <leafValues>
        -3.8687762618064880e-01 5.4053300619125366e-01</leafValues></_>
    <_>
      <internalNodes>
        0 -1 53735 -596915388 572601637 -1593835416 719229139 753600832
        2013333688 -2130673273 -253712157</internalNodes>
      <leafValues>
        -6.3120877742767334e-01 3.4073185920715332e-01</leafValues></_>
    <_>
      <internalNodes>
        0 -1 47097 1090552263 -620752767 286261518 1435718032
        -2147442328 -2130706176 -1895589558 -1472992885</internalNodes>
      <leafValues>
        -4.7458732128143311e-01 4.3888062238693237e-01</leafValues></_>
    <_>
      <internalNodes>
        0 -1 40755 428065223 268996848 -1878981629 567873542 -583284316
        1747452416 -1475542905 -121336935</internalNodes>
      <leafValues>
        -4.5316612720489502e-01 4.9313905835151672e-01</leafValues></_>
    <_>
      <internalNodes>
        0 -1 52189 1118200093 1574248576 -736882489 1412206770
        1074525544 -2147315712 17475224 -1993692650</internalNodes>
      <leafValues>
        -5.3102183341979980e-01 4.2906323075294495e-01</leafValues></_>
    <_>
      <internalNodes>
        0 -1 47015 286304875 538001687 447508 -1070919536 -805238866
        -1694433151 -1073632978 -570441579</internalNodes>
      <leafValues>
        -5.1844632625579834e-01 3.9511141180992126e-01</leafValues></_>
    <_>
      <internalNodes>
        0 -1 14082 2013590357 -2036432638 34137486 1301659776
        -2142633451 648168080 -1365169598 -2061040883</internalNodes>
      <leafValues>
        -4.8033952713012695e-01 4.2330074310302734e-01</leafValues></_>
    <_>
      <internalNodes>
        0 -1 51684 -802499399 1937746494 1858035100 1928523319
        -1003080193 910159615 -537977414 -1666549954</internalNodes>
      <leafValues>
        -3.6205890774726868e-01 5.5686694383621216e-01</leafValues></_>
    <_>
      <internalNodes>
        0 -1 50639 -1043415523 -1238594996 370040415 -794603799
        -724765143 -2060685652 1946435910 -411816787</internalNodes>
      <leafValues>
        -4.3258211016654968e-01 4.5697441697120667e-01</leafValues></_>
    <_>
      <internalNodes>
        0 -1 47202 -237272810 1159564347 204053402 814067922 -2130608097
        -2000156160 1124198654 -2138708048</internalNodes>
      <leafValues>
        -4.5540556311607361e-01 4.7103250026702881e-01</leafValues></_>
    <_>
      <internalNodes>
        0 -1 305 1683005639 -1819794611 -1191094759 -1290418927
        889868519 -175599613 675283471 1587545997</internalNodes>
      <leafValues>
        -4.4316011667251587e-01 4.5020875334739685e-01</leafValues></_>
    <_>
      <internalNodes>
        0 -1 48292 391575103 1599523940 -957954731 298831349 1116874708
        -1436418177 -457138185 -1442209794</internalNodes>
      <leafValues>
        -3.5655987262725830e-01 6.2067002058029175e-01</leafValues></_>
    <_>
      <internalNodes>
        0 -1 26397 -1018903386 1363248332 -2060447656 369570056
        539132385 411078656 134261500 1529813033</internalNodes>
      <leafValues>
        -4.7971844673156738e-01 4.6372821927070618e-01</leafValues></_>
    <_>
      <internalNodes>
        0 -1 48917 822145308 -2011885420 1091634535 1759318020 805933376
        -91619318 -2071862493 -2080078971</internalNodes>
      <leafValues>
        -6.4312696456909180e-01 3.1028756499290466e-01</leafValues></_>
    <_>
      <internalNodes>
        0 -1 17429 -105912225 -2025787935 169901470 1409310715
        1065443595 -841892297 -1511099275 -1661473463</internalNodes>
      <leafValues>
        -4.1445085406303406e-01 5.0602036714553833e-01</leafValues></_></weakClassifiers></stage15>
</opencv_storage>
