<?xml version="1.0"?>
<opencv_storage>
<stage12>
  <maxWeakCount>20</maxWeakCount>
  <stageThreshold>4.0033173561096191e-01</stageThreshold>
  <weakClassifiers>
    <_>
      <internalNodes>
        0 -1 48910 27971582 1114111 -268538033 67383151 1431765014
        71364725 1196904319 282111</internalNodes>
      <leafValues>
        -7.2027969360351562e-01 8.9912235736846924e-01</leafValues></_>
    <_>
      <internalNodes>
        0 -1 33903 181010174 585711 1253617326 -591859722 376897515
        537128175 -704920073 -491066132</internalNodes>
      <leafValues>
        -3.8814780116081238e-01 6.7162132263183594e-01</leafValues></_>
    <_>
      <internalNodes>
        0 -1 31182 -370454260 1434402884 1130365009 96710697 -507409750
        1485750272 2021820544 1189021824</internalNodes>
      <leafValues>
        -4.9360436201095581e-01 4.5324906706809998e-01</leafValues></_>
    <_>
      <internalNodes>
        0 -1 415 143123155 267411634 1644165497 -1745916291 1363094955
        955628512 -1183628698 -806154123</internalNodes>
      <leafValues>
        -4.1136837005615234e-01 5.0518649816513062e-01</leafValues></_>
    <_>
      <internalNodes>
        0 -1 50681 337121381 -477101561 541152323 -1658760903 570654881
        -1827602375 833200828 -617399503</internalNodes>
      <leafValues>
        -5.2857655286788940e-01 3.9764332771301270e-01</leafValues></_>
    <_>
      <internalNodes>
        0 -1 58049 -1308271906 1901236574 561643779 1914840451
        -1165872194 1661075587 302203656 638458410</internalNodes>
      <leafValues>
        -5.3880351781845093e-01 3.8568669557571411e-01</leafValues></_>
    <_>
      <internalNodes>
        0 -1 55404 -263279938 -348180570 -322656665 -1264226505
        1465253852 123285068 2002081242 -537442441</internalNodes>
      <leafValues>
        -4.5492535829544067e-01 5.0655275583267212e-01</leafValues></_>
    <_>
      <internalNodes>
        0 -1 47000 85602369 -271581183 269680789 -417787879 193151763
        -2130706428 839189384 -208561663</internalNodes>
      <leafValues>
        -4.5187970995903015e-01 5.3231722116470337e-01</leafValues></_>
    <_>
      <internalNodes>
        0 -1 46165 -1804663781 1615177597 -34712550 1608265630
        -1269457711 -2074216451 -419430430 -83973953</internalNodes>
      <leafValues>
        -3.7257215380668640e-01 5.7310181856155396e-01</leafValues></_>
    <_>
      <internalNodes>
        0 -1 55114 1124971402 1128644388 -1510809641 1112141627
        1147520451 1735753086 82926973 -133442063</internalNodes>
      <leafValues>
        -4.2427408695220947e-01 5.3364557027816772e-01</leafValues></_>
    <_>
      <internalNodes>
        0 -1 58116 -1512172647 -616420314 167399464 1391153379
        -2044596184 -432046508 -1490025566 -245184290</internalNodes>
      <leafValues>
        -4.0116196870803833e-01 5.4444026947021484e-01</leafValues></_>
    <_>
      <internalNodes>
        0 -1 41096 -637208044 -1993326037 53266 -687271800 1214816480
        56920321 1073823922 285278218</internalNodes>
      <leafValues>
        -5.7456785440444946e-01 3.7616702914237976e-01</leafValues></_>
    <_>
      <internalNodes>
        0 -1 42395 -753812307 394976732 -17367554 -1552704083
        -1348704596 536723390 -1737249 -1378806609</internalNodes>
      <leafValues>
        -4.4290569424629211e-01 4.8145541548728943e-01</leafValues></_>
    <_>
      <internalNodes>
        0 -1 28374 -1051508422 1732281426 269617182 688095497
        -1990833396 -385318902 1262665780 -1672232824</internalNodes>
      <leafValues>
        -4.7438460588455200e-01 4.2492157220840454e-01</leafValues></_>
    <_>
      <internalNodes>
        0 -1 52089 1360188241 2086010936 -2143206363 1966702722
        -1878982394 -1072136191 -956124598 -1562596956</internalNodes>
      <leafValues>
        -4.8602238297462463e-01 4.6455428004264832e-01</leafValues></_>
    <_>
      <internalNodes>
        0 -1 13304 2097678371 159913173 -1055910563 -250749947 148986243
        715130153 -23032673 402720777</internalNodes>
      <leafValues>
        -5.3254389762878418e-01 4.1432774066925049e-01</leafValues></_>
    <_>
      <internalNodes>
        0 -1 58198 -1044348525 1615868187 1142165702 -464202751 1812621
        220299348 872670003 1398262383</internalNodes>
      <leafValues>
        -5.1660448312759399e-01 4.0058466792106628e-01</leafValues></_>
    <_>
      <internalNodes>
        0 -1 7216 1082660329 1501703837 -1761737848 -1223907988
        -2039373343 -203769962 -1791261045 236002312</internalNodes>
      <leafValues>
        -4.3711158633232117e-01 4.9694505333900452e-01</leafValues></_>
    <_>
      <internalNodes>
        0 -1 53701 -227086299 -618484199 912768432 2121285158 2015601821
        929284081 600291568 -21056460</internalNodes>
      <leafValues>
        -4.1325482726097107e-01 5.1739054918289185e-01</leafValues></_>
    <_>
      <internalNodes>
        0 -1 52402 -2146910358 -2012082040 -2147151601 671224090
        -1051026663 -1849646845 1108054355 -2001499963</internalNodes>
      <leafValues>
        -5.9035819768905640e-01 3.8608315587043762e-01</leafValues></_></weakClassifiers></stage12>
</opencv_storage>
