<?xml version="1.0"?>
<opencv_storage>
<stage11>
  <maxWeakCount>19</maxWeakCount>
  <stageThreshold>5.8223444223403931e-01</stageThreshold>
  <weakClassifiers>
    <_>
      <internalNodes>
        0 -1 42907 733949882 828686130 -117920086 2088249898 352124670
        1147596542 1325313966 368578478</internalNodes>
      <leafValues>
        -5.5329948663711548e-01 9.0492397546768188e-01</leafValues></_>
    <_>
      <internalNodes>
        0 -1 25916 -2135419633 1091988660 -1491071217 791055373
        -755344172 645463997 1438494509 739544124</internalNodes>
      <leafValues>
        -2.6239413022994995e-01 7.0324367284774780e-01</leafValues></_>
    <_>
      <internalNodes>
        0 -1 53886 -1438662786 -943805825 1610554620 1073086453
        -1118306806 -1940619440 341189970 -580747242</internalNodes>
      <leafValues>
        -4.2149311304092407e-01 4.9726006388664246e-01</leafValues></_>
    <_>
      <internalNodes>
        0 -1 33904 1643761631 1912409950 458750 -550682698 1433919307
        -562049178 -805306893 -1885371331</internalNodes>
      <leafValues>
        -3.9079076051712036e-01 5.3408831357955933e-01</leafValues></_>
    <_>
      <internalNodes>
        0 -1 53878 -647075743 449777421 1783307075 -1168474118
        -1336413202 -1205338419 826424291 -1555141894</internalNodes>
      <leafValues>
        -4.0311631560325623e-01 5.2510577440261841e-01</leafValues></_>
    <_>
      <internalNodes>
        0 -1 50633 -1828628402 1644658736 1167106323 838897839 270598680
        -334769639 -795273078 -1482578406</internalNodes>
      <leafValues>
        -5.7254081964492798e-01 3.6250546574592590e-01</leafValues></_>
    <_>
      <internalNodes>
        0 -1 47048 -2073044229 -737300609 -1451245731 -1322258571
        -429998211 1190064110 -27914484 -26214601</internalNodes>
      <leafValues>
        -4.1575920581817627e-01 5.3235256671905518e-01</leafValues></_>
    <_>
      <internalNodes>
        0 -1 48653 1937456903 -52949308 794787824 502836465 667725526
        -1089458476 1037340070 -842006838</internalNodes>
      <leafValues>
        -4.1352632641792297e-01 5.3688353300094604e-01</leafValues></_>
    <_>
      <internalNodes>
        0 -1 28406 1208597433 -1942356551 -1927444289 1042677229
        -965492777 1277164795 279912367 -950412081</internalNodes>
      <leafValues>
        -4.0586543083190918e-01 5.2381199598312378e-01</leafValues></_>
    <_>
      <internalNodes>
        0 -1 53542 -758460731 1398775105 1064514281 521344097
        -1267050251 2117582711 930422747 -9037836</internalNodes>
      <leafValues>
        -3.9158490300178528e-01 5.5402314662933350e-01</leafValues></_>
    <_>
      <internalNodes>
        0 -1 48819 -1870982113 238092481 -1853810352 991237007 45226
        -2113797981 -1390410960 -1287913375</internalNodes>
      <leafValues>
        -4.3388792872428894e-01 4.8410329222679138e-01</leafValues></_>
    <_>
      <internalNodes>
        0 -1 20244 -1664031282 -188506111 1437651412 655958121
        -2071227001 -526838885 -1002190698 753930474</internalNodes>
      <leafValues>
        -5.1685494184494019e-01 3.9823609590530396e-01</leafValues></_>
    <_>
      <internalNodes>
        0 -1 36621 -800459536 -989672799 -205672576 -710680661
        1426712274 -1465533824 -1327378467 -628625833</internalNodes>
      <leafValues>
        -3.3561524748802185e-01 6.2180894613265991e-01</leafValues></_>
    <_>
      <internalNodes>
        0 -1 38337 432777723 -1472467716 -1560697170 -55706195
        1170255358 -155521793 -2051104853 1174269357</internalNodes>
      <leafValues>
        -3.5050839185714722e-01 5.6787991523742676e-01</leafValues></_>
    <_>
      <internalNodes>
        0 -1 52325 -1287984953 1877490271 1867165339 -81727629 -41947493
        -92733655 -1506214389 -320815341</internalNodes>
      <leafValues>
        -3.8443523645401001e-01 5.7029247283935547e-01</leafValues></_>
    <_>
      <internalNodes>
        0 -1 47188 -2092872963 -779860330 -1845460592 386177940
        -1862221165 -1719041904 -1845493724 1040871552</internalNodes>
      <leafValues>
        -5.4215204715728760e-01 3.8614302873611450e-01</leafValues></_>
    <_>
      <internalNodes>
        0 -1 53789 -1076482016 403276260 -2130673631 -1451580659
        -531590502 1610630347 -1073436462 -1858025462</internalNodes>
      <leafValues>
        -6.1532163619995117e-01 3.4975984692573547e-01</leafValues></_>
    <_>
      <internalNodes>
        0 -1 28309 -1003229311 -2073199311 1545652781 -952787136
        1434438879 -327631595 95084407 -26001552</internalNodes>
      <leafValues>
        -4.0608257055282593e-01 5.3978282213211060e-01</leafValues></_>
    <_>
      <internalNodes>
        0 -1 48782 -1167920226 872530900 403834403 1544782081 303255581
        1343430698 -1457278394 2085208162</internalNodes>
      <leafValues>
        -4.9752813577651978e-01 4.2421692609786987e-01</leafValues></_></weakClassifiers></stage11>
</opencv_storage>
