<?xml version="1.0"?>
<opencv_storage>
<stage6>
  <maxWeakCount>18</maxWeakCount>
  <stageThreshold>3.3765447139739990e-01</stageThreshold>
  <weakClassifiers>
    <_>
      <internalNodes>
        0 -1 47000 583019520 -488571158 -16842834 -521077542 -738919176
        1375666080 -16974468 -185590700</internalNodes>
      <leafValues>
        -7.4011301994323730e-01 9.0533798933029175e-01</leafValues></_>
    <_>
      <internalNodes>
        0 -1 34046 587198415 16908143 -118554625 2015948468 358088191
        1682308463 -722350883 547417324</internalNodes>
      <leafValues>
        -4.9710381031036377e-01 6.8659055233001709e-01</leafValues></_>
    <_>
      <internalNodes>
        0 -1 40695 896875514 -1659765830 -1396850758 2109532730
        1437069290 -871956741 398430143 -546354149</internalNodes>
      <leafValues>
        -4.9135792255401611e-01 5.5810028314590454e-01</leafValues></_>
    <_>
      <internalNodes>
        0 -1 52229 1146175539 -267205458 336101471 -818970199 -280385593
        -360086751 161204380 -312813568</internalNodes>
      <leafValues>
        -5.1052772998809814e-01 4.7353732585906982e-01</leafValues></_>
    <_>
      <internalNodes>
        0 -1 42158 -713832293 -1957840965 -1863664997 435802845
        -1068108414 -329745585 1719394043 -1733594645</internalNodes>
      <leafValues>
        -4.2868524789810181e-01 6.1274564266204834e-01</leafValues></_>
    <_>
      <internalNodes>
        0 -1 20767 -791600948 -1068782494 -737475748 415769786 713130431
        -1475833312 37073 -574561235</internalNodes>
      <leafValues>
        -4.8224636912345886e-01 5.0114530324935913e-01</leafValues></_>
    <_>
      <internalNodes>
        0 -1 48717 -238061801 1438700175 1895891396 2088763458
        -1265925588 -1330601824 -1878395304 -306872294</internalNodes>
      <leafValues>
        -4.9378836154937744e-01 5.1261460781097412e-01</leafValues></_>
    <_>
      <internalNodes>
        0 -1 48728 -1346375889 690695150 -319885588 -634159556
        -991125571 -43450642 1093530298 -783949126</internalNodes>
      <leafValues>
        -4.9136015772819519e-01 5.2794444561004639e-01</leafValues></_>
    <_>
      <internalNodes>
        0 -1 48861 -761605643 285345809 1459691282 218333205 -1324908160
        1925185792 570470888 1756127451</internalNodes>
      <leafValues>
        -6.0729891061782837e-01 3.9526951313018799e-01</leafValues></_>
    <_>
      <internalNodes>
        0 -1 26117 -932659196 853016973 -1291730677 245701903
        -1748426598 374183073 38490579 235255808</internalNodes>
      <leafValues>
        -6.5984112024307251e-01 3.5647508502006531e-01</leafValues></_>
    <_>
      <internalNodes>
        0 -1 46579 -1657803211 -655431170 -639173130 -239453420
        -1901319364 -848871451 1395700657 -1147933353</internalNodes>
      <leafValues>
        -4.6703180670738220e-01 5.4443460702896118e-01</leafValues></_>
    <_>
      <internalNodes>
        0 -1 56670 757062651 -768131267 1652405370 825636405 1413781677
        1060246808 1148482936 -16843174</internalNodes>
      <leafValues>
        -3.5683232545852661e-01 6.6713947057723999e-01</leafValues></_>
    <_>
      <internalNodes>
        0 -1 50681 -805284691 -1417469588 294930529 -1877897208
        -2102801487 -1579138909 -2113560192 -1994712632</internalNodes>
      <leafValues>
        -5.8005177974700928e-01 4.1815519332885742e-01</leafValues></_>
    <_>
      <internalNodes>
        0 -1 31696 -168054897 808708643 -2097510737 -303464732 343884863
        -184582146 1845460543 -1528955524</internalNodes>
      <leafValues>
        -4.5702639222145081e-01 5.4437744617462158e-01</leafValues></_>
    <_>
      <internalNodes>
        0 -1 32793 -1297869934 -520076463 570425351 329245736
        -1034653567 -1607888768 -2131769201 2132455875</internalNodes>
      <leafValues>
        -5.8908516168594360e-01 4.3547302484512329e-01</leafValues></_>
    <_>
      <internalNodes>
        0 -1 50529 -158974883 331091612 1323280543 -586121298 -251402580
        1940447144 -245702456 -1116864639</internalNodes>
      <leafValues>
        -4.7061410546302795e-01 5.1454359292984009e-01</leafValues></_>
    <_>
      <internalNodes>
        0 -1 44645 -337852211 -1159787266 -1460160342 -1684406531
        38927234 -195756289 871890378 -1802273057</internalNodes>
      <leafValues>
        -4.7453412413597107e-01 5.5311763286590576e-01</leafValues></_>
    <_>
      <internalNodes>
        0 -1 19726 -834375893 42344584 16830483 -552009664 337021697
        8401034 -1876489013 -47887487</internalNodes>
      <leafValues>
        -5.7817429304122925e-01 4.3113705515861511e-01</leafValues></_></weakClassifiers></stage6>
</opencv_storage>
