<?xml version="1.0"?>
<opencv_storage>
<stage10>
  <maxWeakCount>19</maxWeakCount>
  <stageThreshold>3.1596308946609497e-01</stageThreshold>
  <weakClassifiers>
    <_>
      <internalNodes>
        0 -1 44915 -1997369888 -2145206606 -386072834 -1406599494
        -587855628 -1058607108 -1967386706 -1758176186</internalNodes>
      <leafValues>
        -6.8553459644317627e-01 9.0128165483474731e-01</leafValues></_>
    <_>
      <internalNodes>
        0 -1 29013 2134772245 303302672 402919509 1888486400 -628904944
        -759005184 -654235488 9015962</internalNodes>
      <leafValues>
        -4.5676052570343018e-01 6.6468065977096558e-01</leafValues></_>
    <_>
      <internalNodes>
        0 -1 31390 -17444105 2136284277 1667299357 -243141981
        -2032156674 1583022075 -93143233 -320034897</internalNodes>
      <leafValues>
        -3.7021860480308533e-01 5.9484070539474487e-01</leafValues></_>
    <_>
      <internalNodes>
        0 -1 52237 -1287925433 1833435170 423706763 2073883265
        -1867804346 -1333231222 -1742693166 -1417113021</internalNodes>
      <leafValues>
        -4.9416229128837585e-01 4.7201076149940491e-01</leafValues></_>
    <_>
      <internalNodes>
        0 -1 13656 680175854 -2145221630 -2136979745 -1607741309
        -232582049 538984723 1891717845 -1250198799</internalNodes>
      <leafValues>
        -5.2822631597518921e-01 4.4044563174247742e-01</leafValues></_>
    <_>
      <internalNodes>
        0 -1 52277 257368423 290255009 -2147393511 -1576926902
        -784227949 -1559494648 1364844965 -2134013745</internalNodes>
      <leafValues>
        -4.7990250587463379e-01 4.7279074788093567e-01</leafValues></_>
    <_>
      <internalNodes>
        0 -1 45159 -34341377 -579604998 -302780433 -441319773 -185181099
        -420085835 -989931321 -709361738</internalNodes>
      <leafValues>
        -3.6275061964988708e-01 6.9882190227508545e-01</leafValues></_>
    <_>
      <internalNodes>
        0 -1 48702 1397840131 -14155197 -805306365 -1222360957
        1747394713 -1995947391 1090551810 -144436910</internalNodes>
      <leafValues>
        -5.0838971138000488e-01 4.4768524169921875e-01</leafValues></_>
    <_>
      <internalNodes>
        0 -1 36169 323445948 1909063716 -1876934376 -672164301
        -622918772 -2113929061 1506562307 -1171144694</internalNodes>
      <leafValues>
        -4.4642791152000427e-01 4.8269054293632507e-01</leafValues></_>
    <_>
      <internalNodes>
        0 -1 33878 -2057593496 -653819644 295202 -1458501622 -1073049108
        -2109466623 -66832320 -81590142</internalNodes>
      <leafValues>
        -4.9422433972358704e-01 4.5978063344955444e-01</leafValues></_>
    <_>
      <internalNodes>
        0 -1 50474 1666994533 798364040 285245689 222461964 -1604288002
        679643392 562203786 -517549693</internalNodes>
      <leafValues>
        -5.6614637374877930e-01 3.8090816140174866e-01</leafValues></_>
    <_>
      <internalNodes>
        0 -1 41014 269701205 51904913 1795248568 1365070114 1073873313
        1135247488 344044570 -790051390</internalNodes>
      <leafValues>
        -5.5072766542434692e-01 4.0786337852478027e-01</leafValues></_>
    <_>
      <internalNodes>
        0 -1 44897 -872422101 -337793745 -1946157854 1969195210
        -1402280758 -1059311956 -1241595396 -740048660</internalNodes>
      <leafValues>
        -3.2271090149879456e-01 7.3201692104339600e-01</leafValues></_>
    <_>
      <internalNodes>
        0 -1 52180 2114138354 -851406652 34896 2098528448 276965394
        -1941925630 -1719614958 -1114988501</internalNodes>
      <leafValues>
        -4.2374441027641296e-01 5.1440727710723877e-01</leafValues></_>
    <_>
      <internalNodes>
        0 -1 28872 -168075173 2138798972 624430719 -1477497029 -16885809
        2122251263 -1065761250 1136719265</internalNodes>
      <leafValues>
        -4.4437149167060852e-01 4.9701648950576782e-01</leafValues></_>
    <_>
      <internalNodes>
        0 -1 52383 -4490646 1403366056 -335548498 1462763263 1582816565
        2033213602 -1375867172 -590105426</internalNodes>
      <leafValues>
        -3.4332606196403503e-01 6.0879635810852051e-01</leafValues></_>
    <_>
      <internalNodes>
        0 -1 52276 807449112 -1302753258 -721354722 -418950896 285422282
        -2008020862 1101212149 -429116476</internalNodes>
      <leafValues>
        -5.5130565166473389e-01 4.0120205283164978e-01</leafValues></_>
    <_>
      <internalNodes>
        0 -1 60657 77070293 -2063191919 -1844100800 610066688 587311320
        -1048510208 -919604288 139280793</internalNodes>
      <leafValues>
        -5.0293844938278198e-01 4.2539033293724060e-01</leafValues></_>
    <_>
      <internalNodes>
        0 -1 47113 293814626 -2086862464 1511785346 -579382254
        -452914815 1499584658 470868888 -1717753402</internalNodes>
      <leafValues>
        -4.7342842817306519e-01 4.2648994922637939e-01</leafValues></_></weakClassifiers></stage10>
</opencv_storage>
