<?xml version="1.0"?>
<opencv_storage>
<stage13>
  <maxWeakCount>21</maxWeakCount>
  <stageThreshold>6.3044726848602295e-03</stageThreshold>
  <weakClassifiers>
    <_>
      <internalNodes>
        0 -1 50633 239078400 -286589192 -285540748 -1090584834 570589052
        1660850308 -17023428 -1364443600</internalNodes>
      <leafValues>
        -8.3739835023880005e-01 8.9722484350204468e-01</leafValues></_>
    <_>
      <internalNodes>
        0 -1 48868 208620626 -1895890945 -1884393651 101687289 880071941
        -1404178863 -1913983624 762416505</internalNodes>
      <leafValues>
        -3.9818397164344788e-01 6.5988880395889282e-01</leafValues></_>
    <_>
      <internalNodes>
        0 -1 45059 637367789 -1543507969 148770321 -765101534 -6
        1518993358 -118000223 957217722</internalNodes>
      <leafValues>
        -4.2016580700874329e-01 5.1287227869033813e-01</leafValues></_>
    <_>
      <internalNodes>
        0 -1 44970 -476872574 -476965754 -1878720229 -737771264
        -775175784 1879769218 1493368960 1422844558</internalNodes>
      <leafValues>
        -6.0898452997207642e-01 3.6647099256515503e-01</leafValues></_>
    <_>
      <internalNodes>
        0 -1 58150 -1113229126 1939061314 815940832 -1877704480
        -835938788 220229196 -1089692280 -11116898</internalNodes>
      <leafValues>
        -4.3949213624000549e-01 4.9573278427124023e-01</leafValues></_>
    <_>
      <internalNodes>
        0 -1 38358 -487261185 1994005755 93084592 -1056674818
        -1951727543 59587128 -256541277 -4277327</internalNodes>
      <leafValues>
        -3.8135132193565369e-01 5.2368146181106567e-01</leafValues></_>
    <_>
      <internalNodes>
        0 -1 47187 -353464329 -896761860 1944235344 -640723875
        -285217060 -52953315 116786304 -71333313</internalNodes>
      <leafValues>
        -3.4351861476898193e-01 6.0601341724395752e-01</leafValues></_>
    <_>
      <internalNodes>
        0 -1 48862 -49235921 -82538477 73728 -1459372031 547537472
        285213184 282679301 -1698019101</internalNodes>
      <leafValues>
        -5.2798193693161011e-01 4.3410089612007141e-01</leafValues></_>
    <_>
      <internalNodes>
        0 -1 38339 1929175959 -744529852 -1610578363 -1260572411
        1359904800 -1977974783 -1751448366 1025141327</internalNodes>
      <leafValues>
        -4.4922611117362976e-01 4.6261501312255859e-01</leafValues></_>
    <_>
      <internalNodes>
        0 -1 36077 -1015283713 145358335 32812799 -38473748 1861907831
        1522073085 -1422434833 -1548915475</internalNodes>
      <leafValues>
        -4.4217371940612793e-01 4.9502632021903992e-01</leafValues></_>
    <_>
      <internalNodes>
        0 -1 23975 -2111688912 1389368510 433061889 -1898920722
        -1065320388 -2080366238 -2147446774 955682971</internalNodes>
      <leafValues>
        -5.8617234230041504e-01 3.6328443884849548e-01</leafValues></_>
    <_>
      <internalNodes>
        0 -1 48645 843260418 1448247317 838926467 -1274413055 -939480542
        -2080362494 591765898 -78703991</internalNodes>
      <leafValues>
        -5.1362907886505127e-01 4.2305359244346619e-01</leafValues></_>
    <_>
      <internalNodes>
        0 -1 3562 807979487 1933072015 1648105991 -446693344 -1084435014
        -1427986732 1315570987 456185870</internalNodes>
      <leafValues>
        -3.6576044559478760e-01 5.7145476341247559e-01</leafValues></_>
    <_>
      <internalNodes>
        0 -1 17351 109334475 1966100481 -1979449077 637907615 97060745
        1479019140 -1600648952 77681367</internalNodes>
      <leafValues>
        -6.2147557735443115e-01 3.4896227717399597e-01</leafValues></_>
    <_>
      <internalNodes>
        0 -1 31622 1196560903 2031158495 1142101070 -585560054 570562609
        -29884205 269701394 -392068710</internalNodes>
      <leafValues>
        -4.8387083411216736e-01 4.3458828330039978e-01</leafValues></_>
    <_>
      <internalNodes>
        0 -1 55447 613499801 -246918903 4259840 -1065151791 25985408
        545619968 1400941052 843038849</internalNodes>
      <leafValues>
        -4.9607554078102112e-01 3.9827635884284973e-01</leafValues></_>
    <_>
      <internalNodes>
        0 -1 53837 508444786 -2126328182 1377173570 1653007690
        -1999269039 782114951 -2147188269 1140861459</internalNodes>
      <leafValues>
        -6.9489014148712158e-01 2.8541192412376404e-01</leafValues></_>
    <_>
      <internalNodes>
        0 -1 50275 -531328486 -917925483 -921599535 1369035100
        -1610475495 -1979113456 -1476255226 1998618761</internalNodes>
      <leafValues>
        -4.5263224840164185e-01 4.4590127468109131e-01</leafValues></_>
    <_>
      <internalNodes>
        0 -1 53712 -1371698320 1116836425 -2099048302 39027537
        1891858603 -1366810368 138491423 291708962</internalNodes>
      <leafValues>
        -4.5012378692626953e-01 4.5140329003334045e-01</leafValues></_>
    <_>
      <internalNodes>
        0 -1 59415 -640887204 -236207005 -927059408 1384202528
        -226981098 -1874378984 1677431681 -481371669</internalNodes>
      <leafValues>
        -3.7155058979988098e-01 5.3667223453521729e-01</leafValues></_>
    <_>
      <internalNodes>
        0 -1 50632 323950021 -649821944 70039 1567789800 86203009
        -2134866910 -2120212184 -614964963</internalNodes>
      <leafValues>
        -4.6515086293220520e-01 4.5150494575500488e-01</leafValues></_></weakClassifiers></stage13>
</opencv_storage>
