<?xml version="1.0"?>
<opencv_storage>
<stage18>
  <maxWeakCount>20</maxWeakCount>
  <stageThreshold>4.9348628520965576e-01</stageThreshold>
  <weakClassifiers>
    <_>
      <internalNodes>
        0 -1 33826 15526634 2818028 1756422908 540081404 73594598
        2291197 1962071551 548034028</internalNodes>
      <leafValues>
        -7.0212763547897339e-01 8.9850938320159912e-01</leafValues></_>
    <_>
      <internalNodes>
        0 -1 45214 -509346321 -433526942 884471727 -534577373 -260582284
        -998770857 1416099327 -2139654570</internalNodes>
      <leafValues>
        -2.7676364779472351e-01 6.8874526023864746e-01</leafValues></_>
    <_>
      <internalNodes>
        0 -1 44946 -1876490122 1121386641 -1874653166 1846611985
        549959739 817897632 -402642833 1143705643</internalNodes>
      <leafValues>
        -5.2463781833648682e-01 4.3544200062751770e-01</leafValues></_>
    <_>
      <internalNodes>
        0 -1 33775 -352608545 2079637179 1421098493 1498950241
        -1552957477 -996102474 1127349918 -1683392606</internalNodes>
      <leafValues>
        -3.4096643328666687e-01 6.1862367391586304e-01</leafValues></_>
    <_>
      <internalNodes>
        0 -1 48592 1392711085 -976981504 -1861205824 -1222098927
        -800989152 -1878458368 -1300205504 -1415835487</internalNodes>
      <leafValues>
        -5.3604811429977417e-01 4.1385197639465332e-01</leafValues></_>
    <_>
      <internalNodes>
        0 -1 20706 -248930256 -737626867 -520093672 -96567287
        -1458445999 -2147237720 311640073 -1537988036</internalNodes>
      <leafValues>
        -5.9533554315567017e-01 3.2238405942916870e-01</leafValues></_>
    <_>
      <internalNodes>
        0 -1 45033 -493444472 -328072831 -1257896688 1780482049
        -1853748456 789577728 -1828706132 -1039462774</internalNodes>
      <leafValues>
        -6.8892830610275269e-01 2.8901684284210205e-01</leafValues></_>
    <_>
      <internalNodes>
        0 -1 55601 -529318733 405732350 1311698460 -1049907383 574168
        1359512642 -234846194 1999080966</internalNodes>
      <leafValues>
        -4.3288171291351318e-01 4.8083525896072388e-01</leafValues></_>
    <_>
      <internalNodes>
        0 -1 23876 -794730292 -367501566 151339307 491299217 -1039861091
        -1985940608 -2147270506 -1803485173</internalNodes>
      <leafValues>
        -4.4534859061241150e-01 4.5886313915252686e-01</leafValues></_>
    <_>
      <internalNodes>
        0 -1 50421 -158964799 1739391045 -259977003 1443168389
        1140997708 683221165 -1440708086 -2083684095</internalNodes>
      <leafValues>
        -4.5813411474227905e-01 4.4217529892921448e-01</leafValues></_>
    <_>
      <internalNodes>
        0 -1 45103 -508321289 -35396933 -1245185 -454365470 -252384009
        -981991428 -196993 -622762</internalNodes>
      <leafValues>
        -3.8997137546539307e-01 5.2559566497802734e-01</leafValues></_>
    <_>
      <internalNodes>
        0 -1 44942 268736768 547672405 69238852 588201985 1434669563
        -2011937528 -739400457 -2130583162</internalNodes>
      <leafValues>
        -4.7757929563522339e-01 4.4798433780670166e-01</leafValues></_>
    <_>
      <internalNodes>
        0 -1 55404 -1263635169 -142626897 -52154500 -4444756 -1755457699
        1062743678 1985271034 -707681161</internalNodes>
      <leafValues>
        -3.6991000175476074e-01 5.8557379245758057e-01</leafValues></_>
    <_>
      <internalNodes>
        0 -1 49015 -530689601 1807099711 -1472266842 1981871792
        1941954559 982939638 268742828 -1970962041</internalNodes>
      <leafValues>
        -4.0092781186103821e-01 4.9988785386085510e-01</leafValues></_>
    <_>
      <internalNodes>
        0 -1 42825 -1280313585 1562189278 -570467330 420384157
        1606740684 1155419902 -582173474 -1689272361</internalNodes>
      <leafValues>
        -3.1244415044784546e-01 6.5038841962814331e-01</leafValues></_>
    <_>
      <internalNodes>
        0 -1 43041 -96002672 537666080 -1877987020 -1537762912
        1073840388 1343258624 1287889045 339799652</internalNodes>
      <leafValues>
        -6.8641912937164307e-01 3.2660943269729614e-01</leafValues></_>
    <_>
      <internalNodes>
        0 -1 40864 -1547050832 1387763776 302055508 270606471
        -1449483872 813711426 -1576761215 -184051535</internalNodes>
      <leafValues>
        -4.6226206421852112e-01 4.6057227253913879e-01</leafValues></_>
    <_>
      <internalNodes>
        0 -1 62933 227101785 -1876225959 -2071348371 151602434
        1552187579 -1112850962 1458482822 1846850611</internalNodes>
      <leafValues>
        -4.1287022829055786e-01 5.1982593536376953e-01</leafValues></_>
    <_>
      <internalNodes>
        0 -1 41056 -2113666887 -790694875 1342226948 895848274
        -1325366461 1526760353 1678297219 251757184</internalNodes>
      <leafValues>
        -5.1166015863418579e-01 4.1751024127006531e-01</leafValues></_>
    <_>
      <internalNodes>
        0 -1 48654 -347012605 1992770498 285475472 -733839220 558182753
        -1003487100 -1154440792 -1431575986</internalNodes>
      <leafValues>
        -4.7074761986732483e-01 4.4262719154357910e-01</leafValues></_></weakClassifiers></stage18>
</opencv_storage>
